<?xml version="1.0"?>
<opencv_storage>
<cascade>
  <stageType>BOOST</stageType>
  <featureType>HAAR</featureType>
  <height>24</height>
  <width>24</width>
  <stageParams>
    <boostType>GAB</boostType>
    <minHitRate>9.9500000476837158e-01</minHitRate>
    <maxFalseAlarm>5.0000000000000000e-01</maxFalseAlarm>
    <weightTrimRate>9.4999998807907104e-01</weightTrimRate>
    <maxDepth>1</maxDepth>
    <maxWeakCount>100</maxWeakCount></stageParams>
  <featureParams>
    <maxCatCount>0</maxCatCount>
    <featSize>1</featSize>
    <mode>BASIC</mode></featureParams>
  <stageNum>7</stageNum>
  <stages>
    <!-- stage 0 -->
    <_>
      <maxWeakCount>1</maxWeakCount>
      <stageThreshold>6.8098157644271851e-01</stageThreshold>
      <weakClassifiers>
        <_>
          <internalNodes>
            0 -1 3 3.3970862627029419e-01</internalNodes>
          <leafValues>
            -1. 6.8098157644271851e-01</leafValues></_></weakClassifiers></_>
    <!-- stage 1 -->
    <_>
      <maxWeakCount>2</maxWeakCount>
      <stageThreshold>-2.3419389128684998e-01</stageThreshold>
      <weakClassifiers>
        <_>
          <internalNodes>
            0 -1 8 7.5179539620876312e-02</internalNodes>
          <leafValues>
            -9.8198199272155762e-01 8.5507243871688843e-01</leafValues></_>
        <_>
          <internalNodes>
            0 -1 1 3.4041976928710938e-01</internalNodes>
          <leafValues>
            -9.6092379093170166e-01 7.4778807163238525e-01</leafValues></_></weakClassifiers></_>
    <!-- stage 2 -->
    <_>
      <maxWeakCount>2</maxWeakCount>
      <stageThreshold>-8.3752954006195068e-01</stageThreshold>
      <weakClassifiers>
        <_>
          <internalNodes>
            0 -1 6 -4.3269026279449463e-01</internalNodes>
          <leafValues>
            4.3859648704528809e-01 -8.9247310161590576e-01</leafValues></_>
        <_>
          <internalNodes>
            0 -1 11 4.3599214404821396e-03</internalNodes>
          <leafValues>
            5.4943572729825974e-02 -1.</leafValues></_></weakClassifiers></_>
    <!-- stage 3 -->
    <_>
      <maxWeakCount>2</maxWeakCount>
      <stageThreshold>-7.9691463708877563e-01</stageThreshold>
      <weakClassifiers>
        <_>
          <internalNodes>
            0 -1 9 1.1893395334482193e-02</internalNodes>
          <leafValues>
            -8.7115383148193359e-01 4.4329896569252014e-01</leafValues></_>
        <_>
          <internalNodes>
            0 -1 0 1.5551419346593320e-04</internalNodes>
          <leafValues>
            7.4239231646060944e-02 -9.9066036939620972e-01</leafValues></_></weakClassifiers></_>
    <!-- stage 4 -->
    <_>
      <maxWeakCount>2</maxWeakCount>
      <stageThreshold>-5.5689632892608643e-01</stageThreshold>
      <weakClassifiers>
        <_>
          <internalNodes>
            0 -1 2 4.4277071952819824e-02</internalNodes>
          <leafValues>
            -9.1425722837448120e-01 4.0298506617546082e-01</leafValues></_>
        <_>
          <internalNodes>
            0 -1 0 -1.1113550499430858e-05</internalNodes>
          <leafValues>
            -1. 3.5736092925071716e-01</leafValues></_></weakClassifiers></_>
    <!-- stage 5 -->
    <_>
      <maxWeakCount>3</maxWeakCount>
      <stageThreshold>-1.3193874359130859e+00</stageThreshold>
      <weakClassifiers>
        <_>
          <internalNodes>
            0 -1 7 1.4843367040157318e-02</internalNodes>
          <leafValues>
            -8.9980733394622803e-01 7.1717172861099243e-01</leafValues></_>
        <_>
          <internalNodes>
            0 -1 10 3.5204351879656315e-03</internalNodes>
          <leafValues>
            -8.4143978357315063e-01 6.8436342477798462e-01</leafValues></_>
        <_>
          <internalNodes>
            0 -1 5 6.1989434470888227e-05</internalNodes>
          <leafValues>
            4.2185968160629272e-01 -1.</leafValues></_></weakClassifiers></_>
    <!-- stage 6 -->
    <_>
      <maxWeakCount>2</maxWeakCount>
      <stageThreshold>-3.5723039507865906e-01</stageThreshold>
      <weakClassifiers>
        <_>
          <internalNodes>
            0 -1 4 3.2930891960859299e-02</internalNodes>
          <leafValues>
            -9.3610841035842896e-01 1.</leafValues></_>
        <_>
          <internalNodes>
            0 -1 12 -6.4031300134956837e-03</internalNodes>
          <leafValues>
            5.7887804508209229e-01 -9.2774105072021484e-01</leafValues></_></weakClassifiers></_></stages>
  <features>
    <_>
      <rects>
        <_>
          0 0 4 3 -1.</_>
        <_>
          2 0 2 3 2.</_></rects>
      <tilted>0</tilted></_>
    <_>
      <rects>
        <_>
          0 0 23 21 -1.</_>
        <_>
          0 7 23 7 3.</_></rects>
      <tilted>0</tilted></_>
    <_>
      <rects>
        <_>
          0 3 12 6 -1.</_>
        <_>
          4 3 4 6 3.</_></rects>
      <tilted>0</tilted></_>
    <_>
      <rects>
        <_>
          0 3 24 12 -1.</_>
        <_>
          8 3 8 12 3.</_></rects>
      <tilted>0</tilted></_>
    <_>
      <rects>
        <_>
          0 4 12 5 -1.</_>
        <_>
          4 4 4 5 3.</_></rects>
      <tilted>0</tilted></_>
    <_>
      <rects>
        <_>
          0 19 2 4 -1.</_>
        <_>
          1 19 1 4 2.</_></rects>
      <tilted>0</tilted></_>
    <_>
      <rects>
        <_>
          2 5 20 18 -1.</_>
        <_>
          2 14 20 9 2.</_></rects>
      <tilted>0</tilted></_>
    <_>
      <rects>
        <_>
          4 0 1 15 -1.</_>
        <_>
          4 5 1 5 3.</_></rects>
      <tilted>0</tilted></_>
    <_>
      <rects>
        <_>
          4 0 16 6 -1.</_>
        <_>
          4 3 16 3 2.</_></rects>
      <tilted>0</tilted></_>
    <_>
      <rects>
        <_>
          9 0 6 2 -1.</_>
        <_>
          9 1 6 1 2.</_></rects>
      <tilted>0</tilted></_>
    <_>
      <rects>
        <_>
          16 5 6 10 -1.</_>
        <_>
          18 5 2 10 3.</_></rects>
      <tilted>0</tilted></_>
    <_>
      <rects>
        <_>
          17 2 7 22 -1.</_>
        <_>
          17 13 7 11 2.</_></rects>
      <tilted>0</tilted></_>
    <_>
      <rects>
        <_>
          18 6 6 1 -1.</_>
        <_>
          21 6 3 1 2.</_></rects>
      <tilted>0</tilted></_></features></cascade>
</opencv_storage>
