<?xml version="1.0"?>
<opencv_storage>
<cascade>
  <stageType>BOOST</stageType>
  <featureType>HAAR</featureType>
  <height>24</height>
  <width>24</width>
  <stageParams>
    <boostType>GAB</boostType>
    <minHitRate>9.9500000476837158e-01</minHitRate>
    <maxFalseAlarm>5.0000000000000000e-01</maxFalseAlarm>
    <weightTrimRate>9.4999998807907104e-01</weightTrimRate>
    <maxDepth>1</maxDepth>
    <maxWeakCount>100</maxWeakCount></stageParams>
  <featureParams>
    <maxCatCount>0</maxCatCount>
    <featSize>1</featSize>
    <mode>BASIC</mode></featureParams>
  <stageNum>5</stageNum>
  <stages>
    <!-- stage 0 -->
    <_>
      <maxWeakCount>3</maxWeakCount>
      <stageThreshold>-1.5394052267074585e+00</stageThreshold>
      <weakClassifiers>
        <_>
          <internalNodes>
            0 -1 2 -1.9969323650002480e-02</internalNodes>
          <leafValues>
            4.5454546809196472e-01 -9.9599599838256836e-01</leafValues></_>
        <_>
          <internalNodes>
            0 -1 14 2.5909587740898132e-02</internalNodes>
          <leafValues>
            -9.7875392436981201e-01 4.3184372782707214e-01</leafValues></_>
        <_>
          <internalNodes>
            0 -1 3 -9.1961994767189026e-03</internalNodes>
          <leafValues>
            6.4168387651443481e-01 -9.7525298595428467e-01</leafValues></_></weakClassifiers></_>
    <!-- stage 1 -->
    <_>
      <maxWeakCount>3</maxWeakCount>
      <stageThreshold>-1.5528514385223389e+00</stageThreshold>
      <weakClassifiers>
        <_>
          <internalNodes>
            0 -1 6 -3.5677000880241394e-02</internalNodes>
          <leafValues>
            6.0000002384185791e-01 -9.8805969953536987e-01</leafValues></_>
        <_>
          <internalNodes>
            0 -1 10 -1.9777461886405945e-01</internalNodes>
          <leafValues>
            3.5066407918930054e-01 -9.6831333637237549e-01</leafValues></_>
        <_>
          <internalNodes>
            0 -1 11 5.8659105561673641e-03</internalNodes>
          <leafValues>
            -9.1545575857162476e-01 6.8176627159118652e-01</leafValues></_></weakClassifiers></_>
    <!-- stage 2 -->
    <_>
      <maxWeakCount>4</maxWeakCount>
      <stageThreshold>-2.0274162292480469e+00</stageThreshold>
      <weakClassifiers>
        <_>
          <internalNodes>
            0 -1 7 1.3817436993122101e-01</internalNodes>
          <leafValues>
            -9.8412698507308960e-01 1.</leafValues></_>
        <_>
          <internalNodes>
            0 -1 12 1.4962588436901569e-02</internalNodes>
          <leafValues>
            -9.5694226026535034e-01 1.9720138609409332e-01</leafValues></_>
        <_>
          <internalNodes>
            0 -1 5 -1.3036906719207764e-01</internalNodes>
          <leafValues>
            7.5217294692993164e-01 -8.2171511650085449e-01</leafValues></_>
        <_>
          <internalNodes>
            0 -1 13 -3.8720063865184784e-02</internalNodes>
          <leafValues>
            7.6242816448211670e-01 -8.3851981163024902e-01</leafValues></_></weakClassifiers></_>
    <!-- stage 3 -->
    <_>
      <maxWeakCount>3</maxWeakCount>
      <stageThreshold>-1.6938500404357910e+00</stageThreshold>
      <weakClassifiers>
        <_>
          <internalNodes>
            0 -1 0 -2.8601109981536865e-01</internalNodes>
          <leafValues>
            1. -9.8412698507308960e-01</leafValues></_>
        <_>
          <internalNodes>
            0 -1 8 -2.9332410544157028e-02</internalNodes>
          <leafValues>
            1.5845125913619995e-01 -9.5685577392578125e-01</leafValues></_>
        <_>
          <internalNodes>
            0 -1 4 5.8781234547495842e-03</internalNodes>
          <leafValues>
            -8.6817431449890137e-01 4.9263331294059753e-01</leafValues></_></weakClassifiers></_>
    <!-- stage 4 -->
    <_>
      <maxWeakCount>2</maxWeakCount>
      <stageThreshold>0.</stageThreshold>
      <weakClassifiers>
        <_>
          <internalNodes>
            0 -1 1 -3.7301085889339447e-02</internalNodes>
          <leafValues>
            1. -9.9401795864105225e-01</leafValues></_>
        <_>
          <internalNodes>
            0 -1 9 -9.5091795083135366e-04</internalNodes>
          <leafValues>
            1. -1.</leafValues></_></weakClassifiers></_></stages>
  <features>
    <_>
      <rects>
        <_>
          0 0 19 8 -1.</_>
        <_>
          0 4 19 4 2.</_></rects>
      <tilted>0</tilted></_>
    <_>
      <rects>
        <_>
          0 2 8 3 -1.</_>
        <_>
          4 2 4 3 2.</_></rects>
      <tilted>0</tilted></_>
    <_>
      <rects>
        <_>
          0 6 3 15 -1.</_>
        <_>
          1 6 1 15 3.</_></rects>
      <tilted>0</tilted></_>
    <_>
      <rects>
        <_>
          0 12 3 8 -1.</_>
        <_>
          1 12 1 8 3.</_></rects>
      <tilted>0</tilted></_>
    <_>
      <rects>
        <_>
          1 2 2 6 -1.</_>
        <_>
          1 2 1 3 2.</_>
        <_>
          2 5 1 3 2.</_></rects>
      <tilted>0</tilted></_>
    <_>
      <rects>
        <_>
          1 18 16 6 -1.</_>
        <_>
          9 18 8 6 2.</_></rects>
      <tilted>0</tilted></_>
    <_>
      <rects>
        <_>
          2 3 9 2 -1.</_>
        <_>
          5 3 3 2 3.</_></rects>
      <tilted>0</tilted></_>
    <_>
      <rects>
        <_>
          2 16 8 8 -1.</_>
        <_>
          2 20 8 4 2.</_></rects>
      <tilted>0</tilted></_>
    <_>
      <rects>
        <_>
          7 0 2 8 -1.</_>
        <_>
          7 4 2 4 2.</_></rects>
      <tilted>0</tilted></_>
    <_>
      <rects>
        <_>
          7 3 2 1 -1.</_>
        <_>
          8 3 1 1 2.</_></rects>
      <tilted>0</tilted></_>
    <_>
      <rects>
        <_>
          10 1 13 10 -1.</_>
        <_>
          10 6 13 5 2.</_></rects>
      <tilted>0</tilted></_>
    <_>
      <rects>
        <_>
          12 0 2 6 -1.</_>
        <_>
          13 0 1 6 2.</_></rects>
      <tilted>0</tilted></_>
    <_>
      <rects>
        <_>
          14 22 8 2 -1.</_>
        <_>
          14 23 8 1 2.</_></rects>
      <tilted>0</tilted></_>
    <_>
      <rects>
        <_>
          17 4 6 12 -1.</_>
        <_>
          19 4 2 12 3.</_></rects>
      <tilted>0</tilted></_>
    <_>
      <rects>
        <_>
          18 4 6 2 -1.</_>
        <_>
          21 4 3 2 2.</_></rects>
      <tilted>0</tilted></_></features></cascade>
</opencv_storage>
